booster[0]:
0:leaf=-0.169184357
booster[1]:
0:leaf=-0.15207319
booster[2]:
0:leaf=-0.144850522
booster[3]:
0:leaf=-0.12306159
booster[4]:
0:leaf=-0.119293861
booster[5]:
0:leaf=-0.106884763
booster[6]:
0:[xy_black_currently_performance<2.5] yes=1,no=2,missing=2
	1:leaf=-0.0889847577
	2:leaf=-0.110835426
booster[7]:
0:leaf=-0.0892382488
booster[8]:
0:[xy_black_currently_performance<2.5] yes=1,no=2,missing=2
	1:leaf=-0.072098203
	2:leaf=-0.0977204815
booster[9]:
0:leaf=-0.0836674646
booster[10]:
0:leaf=-0.0718518272
booster[11]:
0:leaf=-0.0706778988
booster[12]:
0:leaf=-0.0607115179
booster[13]:
0:leaf=-0.0580499955
booster[14]:
0:leaf=-0.0591538325
booster[15]:
0:leaf=-0.0518831648
booster[16]:
0:leaf=-0.039768178
booster[17]:
0:leaf=-0.038598001
booster[18]:
0:leaf=-0.0392666683
booster[19]:
0:leaf=-0.036320962
booster[20]:
0:leaf=-0.0355430953
booster[21]:
0:leaf=-0.0347150825
booster[22]:
0:leaf=-0.0251966454
booster[23]:
0:leaf=-0.0153375985
booster[24]:
0:leaf=-0.0196600035
booster[25]:
0:leaf=-0.0225794651
booster[26]:
0:leaf=-0.0211531166
booster[27]:
0:leaf=-0.0163237751
booster[28]:
0:leaf=-0.0127974441
booster[29]:
0:leaf=-0.00458686845
booster[30]:
0:leaf=-0.0198020469
booster[31]:
0:leaf=-0.0280371793
booster[32]:
0:leaf=-0.00292420783
booster[33]:
0:leaf=0.00167718611
booster[34]:
0:leaf=-0.0115459077
booster[35]:
0:leaf=-0.00755645707
booster[36]:
0:leaf=-0.00668857805
booster[37]:
0:leaf=-0.0148122441
booster[38]:
0:leaf=-0.000524293573
booster[39]:
0:leaf=-0.00644839043
booster[40]:
0:leaf=-0.00404127827
booster[41]:
0:leaf=-0.010665928
booster[42]:
0:leaf=-0.00814636052
booster[43]:
0:leaf=-0.0118313655
booster[44]:
0:leaf=0.00196163007
booster[45]:
0:leaf=-0.00304256938
booster[46]:
0:leaf=-0.000880999607
booster[47]:
0:leaf=-0.0027682404
booster[48]:
0:leaf=0.00610891916
booster[49]:
0:leaf=-0
booster[50]:
0:leaf=-0.00501832692
booster[51]:
0:leaf=0.000825016119
booster[52]:
0:leaf=0.0038420835
booster[53]:
0:leaf=-0
booster[54]:
0:leaf=-0.00687155267
booster[55]:
0:leaf=-0.000194814522
booster[56]:
0:leaf=0.00238878932
booster[57]:
0:leaf=0.0107153831
booster[58]:
0:leaf=-0.00223909901
booster[59]:
0:leaf=-0.00717118476
booster[60]:
0:leaf=-0.00947597157
booster[61]:
0:leaf=-0.0102637382
booster[62]:
0:leaf=0.00337491604
booster[63]:
0:leaf=0.00157587335
booster[64]:
0:leaf=-0
booster[65]:
0:leaf=-0
booster[66]:
0:leaf=-0
booster[67]:
0:leaf=0.00261387532
booster[68]:
0:leaf=0.00262324093
booster[69]:
0:leaf=0.00345041719
booster[70]:
0:leaf=-0.00286997342
booster[71]:
0:leaf=0.00693510287
booster[72]:
0:leaf=0.00725521799
booster[73]:
0:leaf=0.0128527796
booster[74]:
0:leaf=-0.00506495079
booster[75]:
0:leaf=-0.00937292445
booster[76]:
0:leaf=-0.0138886794
booster[77]:
0:leaf=-0.00191635895
booster[78]:
0:leaf=0.00110391749
booster[79]:
0:leaf=0.00269036693
booster[80]:
0:leaf=0.00461258925
booster[81]:
0:leaf=-0.00374715752
booster[82]:
0:leaf=-0.00442179292
booster[83]:
0:leaf=0.00172121031
booster[84]:
0:leaf=-0.00292117498
booster[85]:
0:leaf=0.00162516185
booster[86]:
0:leaf=0.00265465747
booster[87]:
0:leaf=0.0071772146
booster[88]:
0:leaf=-0.00112684991
booster[89]:
0:leaf=-0.000427573337
booster[90]:
0:leaf=0.00417491933
booster[91]:
0:leaf=0.00855406001
booster[92]:
0:leaf=0.00693074102
booster[93]:
0:leaf=-0.00120482361
booster[94]:
0:leaf=-0.00174846407
booster[95]:
0:leaf=9.70448455e-05
booster[96]:
0:leaf=-0.0104724979
booster[97]:
0:leaf=0.00071340648
booster[98]:
0:leaf=-0.00429581571
booster[99]:
0:leaf=0.0147251403
booster[100]:
0:leaf=0.00308193895
booster[101]:
0:leaf=-0.00412281277
booster[102]:
0:leaf=-0.00627137208
booster[103]:
0:leaf=0.00385968783
booster[104]:
0:leaf=0.00518649165
booster[105]:
0:leaf=0.0039811749
booster[106]:
0:leaf=0.00236765295
booster[107]:
0:leaf=-0
booster[108]:
0:leaf=-0
booster[109]:
0:leaf=-0.00138595153
booster[110]:
0:leaf=-0.0115876701
booster[111]:
0:leaf=-0.00833127461
booster[112]:
0:leaf=-0.00897458475
booster[113]:
0:leaf=-0.00606160425
booster[114]:
0:leaf=-0.00173975842
booster[115]:
0:leaf=0.00684347283
booster[116]:
0:leaf=-0
booster[117]:
0:leaf=-0.00878259726
booster[118]:
0:leaf=-0.00132759905
booster[119]:
0:leaf=0.00157328043
booster[120]:
0:leaf=-0.00487639476
booster[121]:
0:leaf=0.00217667478
booster[122]:
0:leaf=-0.00139710912
booster[123]:
0:leaf=0.0100688254
booster[124]:
0:leaf=0.00150607317
booster[125]:
0:leaf=-0.000925327011
booster[126]:
0:leaf=0.0107242037
booster[127]:
0:leaf=0.00127449736
booster[128]:
0:leaf=0.00217990298
booster[129]:
0:leaf=0.00711571099
booster[130]:
0:leaf=-0.0167768281
booster[131]:
0:leaf=0.0117943492
booster[132]:
0:leaf=-0.0131731192
booster[133]:
0:leaf=-0
booster[134]:
0:leaf=0.00314573129
booster[135]:
0:leaf=-0.00428971555
booster[136]:
0:leaf=0.000901238236
booster[137]:
0:leaf=0.0090490533
booster[138]:
0:leaf=0.0021561631
booster[139]:
0:leaf=0.00381175894
booster[140]:
0:leaf=0.0025088999
booster[141]:
0:leaf=-0.00528804772
booster[142]:
0:leaf=0.00943750981
booster[143]:
0:leaf=-0.00526740076
booster[144]:
0:leaf=0.00433134055
booster[145]:
0:leaf=-0.00169501884
booster[146]:
0:leaf=-0
booster[147]:
0:leaf=-0.00222317223
booster[148]:
0:leaf=-0.00349412486
booster[149]:
0:leaf=0.000738746719
booster[150]:
0:leaf=-0.00262560719
booster[151]:
0:leaf=-0.00769032072
booster[152]:
0:leaf=0.00222404138
booster[153]:
0:leaf=0.00595108932
booster[154]:
0:leaf=0.00581430644
booster[155]:
0:leaf=-0.000875800906
booster[156]:
0:leaf=-0.00100174756
booster[157]:
0:leaf=0.00613455055
booster[158]:
0:leaf=0.00532067334
booster[159]:
0:leaf=-0.00430357875
booster[160]:
0:leaf=0.000130271277
booster[161]:
0:leaf=-0.00549232308
booster[162]:
0:leaf=0.000165630365
booster[163]:
0:leaf=-0.00674962811
booster[164]:
0:leaf=0.00442592753
booster[165]:
0:leaf=-0.00033169362
booster[166]:
0:leaf=-0
booster[167]:
0:leaf=0.0142478263
booster[168]:
0:leaf=-0.0012030669
booster[169]:
0:leaf=-0.0051240758
booster[170]:
0:leaf=-0.0084733367
booster[171]:
0:leaf=-0
booster[172]:
0:leaf=-0.000199114613
booster[173]:
0:leaf=0.00488497969
booster[174]:
0:leaf=0.000250362529
booster[175]:
0:leaf=0.00138448132
booster[176]:
0:leaf=0.00157215761
booster[177]:
0:leaf=-0.00443559885
booster[178]:
0:leaf=-0.00941566192
booster[179]:
0:leaf=-0
booster[180]:
0:leaf=-0.00276528904
booster[181]:
0:leaf=-0
booster[182]:
0:leaf=0.00266964315
booster[183]:
0:leaf=0.000504988129
booster[184]:
0:leaf=-3.99781748e-05
booster[185]:
0:leaf=-0.00631571515
booster[186]:
0:leaf=0.00116988271
booster[187]:
0:leaf=-0.00442945026
booster[188]:
0:leaf=0.00360139553
booster[189]:
0:leaf=-0.0042744237
booster[190]:
0:leaf=-0.00333325518
booster[191]:
0:leaf=0.000123580321
booster[192]:
0:leaf=-0.00145261455
booster[193]:
0:leaf=-0.00446327589
booster[194]:
0:leaf=-0.00754943723
booster[195]:
0:leaf=0.000837187341
booster[196]:
0:leaf=0.0171513278
booster[197]:
0:leaf=0.000141772893
booster[198]:
0:leaf=-0.00477550318
booster[199]:
0:leaf=-0.00709509756
booster[200]:
0:leaf=0.00372616574
booster[201]:
0:leaf=0.00109655759
booster[202]:
0:leaf=-0.00249987631
booster[203]:
0:leaf=-0
booster[204]:
0:leaf=-0.00236415979
booster[205]:
0:leaf=-0.00313587557
booster[206]:
0:leaf=-0.00637424644
booster[207]:
0:leaf=0.00609702291
booster[208]:
0:leaf=0.000681501871
booster[209]:
0:leaf=0.00477048289
booster[210]:
0:leaf=-0.00460978504
booster[211]:
0:leaf=0.00220524031
booster[212]:
0:leaf=-0.00417722808
booster[213]:
0:leaf=0.00807832368
booster[214]:
0:leaf=-0.00599632086
booster[215]:
0:leaf=-0.00241764984
booster[216]:
0:leaf=-0.00129225897
booster[217]:
0:leaf=-0.00623769127
booster[218]:
0:leaf=-0.00335691008
booster[219]:
0:leaf=0.000568175805
booster[220]:
0:leaf=0.00784303434
booster[221]:
0:leaf=0.00959410705
booster[222]:
0:leaf=-0.00289650913
booster[223]:
0:leaf=0.00219774619
booster[224]:
0:leaf=0.00108622306
booster[225]:
0:leaf=-0.00974433031
booster[226]:
0:leaf=-0.00477889879
booster[227]:
0:leaf=0.00421517435
booster[228]:
0:leaf=-0.0044820928
booster[229]:
0:leaf=0.0105601847
booster[230]:
0:leaf=-0.00291678053
booster[231]:
0:leaf=0.00429941993
booster[232]:
0:leaf=-0.000950241985
booster[233]:
0:leaf=0.00140908489
booster[234]:
0:leaf=-0.000570657605
booster[235]:
0:leaf=-0.00552684115
booster[236]:
0:leaf=0.00324537721
booster[237]:
0:leaf=-0
booster[238]:
0:leaf=0.000474533648
booster[239]:
0:leaf=-0.00166523026
booster[240]:
0:leaf=0.00130924699
booster[241]:
0:leaf=-0
booster[242]:
0:leaf=-0.00318990927
booster[243]:
0:leaf=0.00571357459
booster[244]:
0:leaf=8.16371903e-05
booster[245]:
0:leaf=0.00326983444
booster[246]:
0:leaf=0.00702119851
booster[247]:
0:leaf=0.00507830177
booster[248]:
0:leaf=-0.00475729862
booster[249]:
0:leaf=0.00769543415
booster[250]:
0:leaf=-0.00123887649
booster[251]:
0:leaf=-0.00442653149
booster[252]:
0:leaf=-0
booster[253]:
0:leaf=0.000388556829
booster[254]:
0:leaf=-0.00719625596
booster[255]:
0:leaf=-0.0095646251
booster[256]:
0:leaf=-0.00172355794
booster[257]:
0:leaf=-0
booster[258]:
0:leaf=-0
booster[259]:
0:leaf=0.0032409206
booster[260]:
0:leaf=-0.0010796081
booster[261]:
0:leaf=0.00817605946
booster[262]:
0:leaf=0.000699065567
booster[263]:
0:leaf=0.00340090529
booster[264]:
0:leaf=0.00437367475
booster[265]:
0:leaf=-0.00134816754
booster[266]:
0:leaf=-0.000746496604
booster[267]:
0:leaf=0.000329633389
booster[268]:
0:leaf=-0.0023650392
booster[269]:
0:leaf=-0
booster[270]:
0:leaf=-0
booster[271]:
0:leaf=-0.00373209617
booster[272]:
0:leaf=0.00566209294
booster[273]:
0:leaf=0.00833639782
booster[274]:
0:leaf=0.00166507531
booster[275]:
0:leaf=-0.0065473211
booster[276]:
0:leaf=-0.00889271405
booster[277]:
0:leaf=-0
booster[278]:
0:leaf=-0.00903422758
booster[279]:
0:leaf=-0.00486943498
booster[280]:
0:leaf=-0
booster[281]:
0:leaf=-0.00888525601
booster[282]:
0:leaf=-0
booster[283]:
0:leaf=-0.00955278613
booster[284]:
0:leaf=-0.000526367687
booster[285]:
0:leaf=-0
